<?xml version="1.0"?>
<opencv_storage>
<cascade>
  <stageType>BOOST</stageType>
  <featureType>HAAR</featureType>
  <height>24</height>
  <width>24</width>
  <stageParams>
    <boostType>GAB</boostType>
    <minHitRate>9.9900001287460327e-01</minHitRate>
    <maxFalseAlarm>3.0000001192092896e-01</maxFalseAlarm>
    <weightTrimRate>9.4999999999999996e-01</weightTrimRate>
    <maxDepth>1</maxDepth>
    <maxWeakCount>100</maxWeakCount></stageParams>
  <featureParams>
    <maxCatCount>0</maxCatCount>
    <featSize>1</featSize>
    <mode>BASIC</mode></featureParams>
  <stageNum>10</stageNum>
  <stages>
    <!-- stage 0 -->
    <_>
      <maxWeakCount>1</maxWeakCount>
      <stageThreshold>1.</stageThreshold>
      <weakClassifiers>
        <_>
          <internalNodes>
            0 -1 0 -1.7187019810080528e-02</internalNodes>
          <leafValues>
            -1. 1.</leafValues></_></weakClassifiers></_>
    <!-- stage 1 -->
    <_>
      <maxWeakCount>4</maxWeakCount>
      <stageThreshold>-1.8233200907707214e-01</stageThreshold>
      <weakClassifiers>
        <_>
          <internalNodes>
            0 -1 43 -1.3277913630008698e-01</internalNodes>
          <leafValues>
            -9.0163934230804443e-01 5.3191488981246948e-01</leafValues></_>
        <_>
          <internalNodes>
            0 -1 4 9.4972029328346252e-02</internalNodes>
          <leafValues>
            -6.5785121917724609e-01 8.0670726299285889e-01</leafValues></_>
        <_>
          <internalNodes>
            0 -1 24 -7.2288759052753448e-02</internalNodes>
          <leafValues>
            7.5939518213272095e-01 -7.0241260528564453e-01</leafValues></_>
        <_>
          <internalNodes>
            0 -1 46 -5.3136590868234634e-03</internalNodes>
          <leafValues>
            -7.2927504777908325e-01 6.4601689577102661e-01</leafValues></_></weakClassifiers></_>
    <!-- stage 2 -->
    <_>
      <maxWeakCount>2</maxWeakCount>
      <stageThreshold>-1.9111867994070053e-02</stageThreshold>
      <weakClassifiers>
        <_>
          <internalNodes>
            0 -1 26 -6.0977009125053883e-03</internalNodes>
          <leafValues>
            6.5517240762710571e-01 -9.1176468133926392e-01</leafValues></_>
        <_>
          <internalNodes>
            0 -1 6 6.9543734192848206e-02</internalNodes>
          <leafValues>
            -6.7428427934646606e-01 9.1090518236160278e-01</leafValues></_></weakClassifiers></_>
    <!-- stage 3 -->
    <_>
      <maxWeakCount>4</maxWeakCount>
      <stageThreshold>-1.1826573610305786e+00</stageThreshold>
      <weakClassifiers>
        <_>
          <internalNodes>
            0 -1 29 -6.7879483103752136e-02</internalNodes>
          <leafValues>
            5.2173912525177002e-01 -8.4126985073089600e-01</leafValues></_>
        <_>
          <internalNodes>
            0 -1 5 2.4635968729853630e-02</internalNodes>
          <leafValues>
            -5.3960740566253662e-01 7.6881742477416992e-01</leafValues></_>
        <_>
          <internalNodes>
            0 -1 3 9.6330784261226654e-02</internalNodes>
          <leafValues>
            -5.3695338964462280e-01 7.9263627529144287e-01</leafValues></_>
        <_>
          <internalNodes>
            0 -1 8 -5.3376380354166031e-02</internalNodes>
          <leafValues>
            6.5453141927719116e-01 -6.2783569097518921e-01</leafValues></_></weakClassifiers></_>
    <!-- stage 4 -->
    <_>
      <maxWeakCount>5</maxWeakCount>
      <stageThreshold>-1.2827357649803162e-01</stageThreshold>
      <weakClassifiers>
        <_>
          <internalNodes>
            0 -1 31 -6.2187839299440384e-02</internalNodes>
          <leafValues>
            -8.8461536169052124e-01 3.9805826544761658e-01</leafValues></_>
        <_>
          <internalNodes>
            0 -1 40 -1.0986490175127983e-02</internalNodes>
          <leafValues>
            4.8065838217735291e-01 -6.0800135135650635e-01</leafValues></_>
        <_>
          <internalNodes>
            0 -1 2 4.2574882507324219e-02</internalNodes>
          <leafValues>
            -5.0018799304962158e-01 7.1886426210403442e-01</leafValues></_>
        <_>
          <internalNodes>
            0 -1 32 1.5286963898688555e-03</internalNodes>
          <leafValues>
            4.4036895036697388e-01 -8.4750014543533325e-01</leafValues></_>
        <_>
          <internalNodes>
            0 -1 14 1.0887653334066272e-03</internalNodes>
          <leafValues>
            3.4069794416427612e-01 -7.8717613220214844e-01</leafValues></_></weakClassifiers></_>
    <!-- stage 5 -->
    <_>
      <maxWeakCount>7</maxWeakCount>
      <stageThreshold>-4.9673965573310852e-01</stageThreshold>
      <weakClassifiers>
        <_>
          <internalNodes>
            0 -1 27 -3.8209687918424606e-02</internalNodes>
          <leafValues>
            -8.9999997615814209e-01 2.6956522464752197e-01</leafValues></_>
        <_>
          <internalNodes>
            0 -1 11 -2.9450107831507921e-04</internalNodes>
          <leafValues>
            -6.8034303188323975e-01 3.3080607652664185e-01</leafValues></_>
        <_>
          <internalNodes>
            0 -1 8 -5.2705962210893631e-02</internalNodes>
          <leafValues>
            4.9897161126136780e-01 -5.7877397537231445e-01</leafValues></_>
        <_>
          <internalNodes>
            0 -1 10 1.0179821401834488e-02</internalNodes>
          <leafValues>
            -5.9160071611404419e-01 4.1927343606948853e-01</leafValues></_>
        <_>
          <internalNodes>
            0 -1 18 1.0173690970987082e-03</internalNodes>
          <leafValues>
            3.4321308135986328e-01 -9.2040103673934937e-01</leafValues></_>
        <_>
          <internalNodes>
            0 -1 44 -1.1268613860011101e-02</internalNodes>
          <leafValues>
            -4.5322215557098389e-01 6.2556636333465576e-01</leafValues></_>
        <_>
          <internalNodes>
            0 -1 15 -1.5965157654136419e-03</internalNodes>
          <leafValues>
            -9.6164935827255249e-01 2.7509245276451111e-01</leafValues></_></weakClassifiers></_>
    <!-- stage 6 -->
    <_>
      <maxWeakCount>6</maxWeakCount>
      <stageThreshold>-1.2392892688512802e-01</stageThreshold>
      <weakClassifiers>
        <_>
          <internalNodes>
            0 -1 20 -2.0493157207965851e-01</internalNodes>
          <leafValues>
            3.5353535413742065e-01 -7.1428573131561279e-01</leafValues></_>
        <_>
          <internalNodes>
            0 -1 41 -8.8530136272311211e-03</internalNodes>
          <leafValues>
            3.7315112352371216e-01 -6.9934093952178955e-01</leafValues></_>
        <_>
          <internalNodes>
            0 -1 12 -3.9351675659418106e-02</internalNodes>
          <leafValues>
            -8.2600003480911255e-01 2.8234532475471497e-01</leafValues></_>
        <_>
          <internalNodes>
            0 -1 13 2.1251265425235033e-03</internalNodes>
          <leafValues>
            -5.6535691022872925e-01 4.6814522147178650e-01</leafValues></_>
        <_>
          <internalNodes>
            0 -1 23 -1.5081785386428237e-03</internalNodes>
          <leafValues>
            -6.7234236001968384e-01 3.5760682821273804e-01</leafValues></_>
        <_>
          <internalNodes>
            0 -1 39 6.9536775117740035e-04</internalNodes>
          <leafValues>
            2.4006602168083191e-01 -8.9089173078536987e-01</leafValues></_></weakClassifiers></_>
    <!-- stage 7 -->
    <_>
      <maxWeakCount>7</maxWeakCount>
      <stageThreshold>-1.2257415801286697e-01</stageThreshold>
      <weakClassifiers>
        <_>
          <internalNodes>
            0 -1 9 1.3373102992773056e-03</internalNodes>
          <leafValues>
            -4.2222222685813904e-01 5.0769233703613281e-01</leafValues></_>
        <_>
          <internalNodes>
            0 -1 38 -6.7685643443837762e-05</internalNodes>
          <leafValues>
            3.4429171681404114e-01 -6.2325280904769897e-01</leafValues></_>
        <_>
          <internalNodes>
            0 -1 47 -5.6800851598381996e-04</internalNodes>
          <leafValues>
            4.6663331985473633e-01 -5.0612771511077881e-01</leafValues></_>
        <_>
          <internalNodes>
            0 -1 36 -4.5523894950747490e-03</internalNodes>
          <leafValues>
            -9.3327158689498901e-01 2.8844872117042542e-01</leafValues></_>
        <_>
          <internalNodes>
            0 -1 25 1.2929888907819986e-03</internalNodes>
          <leafValues>
            -7.1114248037338257e-01 2.6571452617645264e-01</leafValues></_>
        <_>
          <internalNodes>
            0 -1 34 -3.0643694102764130e-02</internalNodes>
          <leafValues>
            -5.9988170862197876e-01 3.1413352489471436e-01</leafValues></_>
        <_>
          <internalNodes>
            0 -1 33 -8.1506947753950953e-04</internalNodes>
          <leafValues>
            8.1385487318038940e-01 -3.6508673429489136e-01</leafValues></_></weakClassifiers></_>
    <!-- stage 8 -->
    <_>
      <maxWeakCount>6</maxWeakCount>
      <stageThreshold>-4.2963939905166626e-01</stageThreshold>
      <weakClassifiers>
        <_>
          <internalNodes>
            0 -1 28 -5.5794266518205404e-04</internalNodes>
          <leafValues>
            6.5217393636703491e-01 -3.2110092043876648e-01</leafValues></_>
        <_>
          <internalNodes>
            0 -1 16 -8.3368935156613588e-04</internalNodes>
          <leafValues>
            7.0428144931793213e-01 -2.9577955603599548e-01</leafValues></_>
        <_>
          <internalNodes>
            0 -1 1 1.2313146889209747e-01</internalNodes>
          <leafValues>
            -3.9256557822227478e-01 5.3003603219985962e-01</leafValues></_>
        <_>
          <internalNodes>
            0 -1 35 -5.4955313680693507e-04</internalNodes>
          <leafValues>
            4.3600240349769592e-01 -4.6997180581092834e-01</leafValues></_>
        <_>
          <internalNodes>
            0 -1 19 -8.7175233056768775e-04</internalNodes>
          <leafValues>
            7.5443208217620850e-01 -2.8306433558464050e-01</leafValues></_>
        <_>
          <internalNodes>
            0 -1 37 -4.8261787742376328e-04</internalNodes>
          <leafValues>
            4.1024115681648254e-01 -5.2731943130493164e-01</leafValues></_></weakClassifiers></_>
    <!-- stage 9 -->
    <_>
      <maxWeakCount>7</maxWeakCount>
      <stageThreshold>-3.3524957299232483e-01</stageThreshold>
      <weakClassifiers>
        <_>
          <internalNodes>
            0 -1 22 -1.2747126817703247e-01</internalNodes>
          <leafValues>
            -6.2264150381088257e-01 2.7450981736183167e-01</leafValues></_>
        <_>
          <internalNodes>
            0 -1 17 -1.8396172672510147e-03</internalNodes>
          <leafValues>
            7.7375513315200806e-01 -2.5097170472145081e-01</leafValues></_>
        <_>
          <internalNodes>
            0 -1 7 2.4994634091854095e-02</internalNodes>
          <leafValues>
            2.1625307202339172e-01 -1.</leafValues></_>
        <_>
          <internalNodes>
            0 -1 21 -7.4115097522735596e-03</internalNodes>
          <leafValues>
            7.3923927545547485e-01 -3.4362044930458069e-01</leafValues></_>
        <_>
          <internalNodes>
            0 -1 45 5.9886637609452009e-04</internalNodes>
          <leafValues>
            -2.9470908641815186e-01 7.1054738759994507e-01</leafValues></_>
        <_>
          <internalNodes>
            0 -1 30 1.6559824347496033e-02</internalNodes>
          <leafValues>
            -4.4361335039138794e-01 4.8497757315635681e-01</leafValues></_>
        <_>
          <internalNodes>
            0 -1 42 -4.4102231040596962e-03</internalNodes>
          <leafValues>
            5.4069513082504272e-01 -4.2168879508972168e-01</leafValues></_></weakClassifiers></_></stages>
  <features>
    <_>
      <rects>
        <_>
          0 0 3 2 -1.</_>
        <_>
          1 0 1 2 2.</_></rects>
      <tilted>0</tilted></_>
    <_>
      <rects>
        <_>
          0 0 22 10 -1.</_>
        <_>
          0 5 22 5 2.</_></rects>
      <tilted>0</tilted></_>
    <_>
      <rects>
        <_>
          0 0 24 6 -1.</_>
        <_>
          0 3 24 3 2.</_></rects>
      <tilted>0</tilted></_>
    <_>
      <rects>
        <_>
          0 0 24 10 -1.</_>
        <_>
          0 5 24 5 2.</_></rects>
      <tilted>0</tilted></_>
    <_>
      <rects>
        <_>
          0 5 12 14 -1.</_>
        <_>
          6 5 6 14 2.</_></rects>
      <tilted>0</tilted></_>
    <_>
      <rects>
        <_>
          0 6 6 15 -1.</_>
        <_>
          3 6 3 15 2.</_></rects>
      <tilted>0</tilted></_>
    <_>
      <rects>
        <_>
          0 9 14 7 -1.</_>
        <_>
          7 9 7 7 2.</_></rects>
      <tilted>0</tilted></_>
    <_>
      <rects>
        <_>
          0 9 24 4 -1.</_>
        <_>
          0 9 12 2 2.</_>
        <_>
          12 11 12 2 2.</_></rects>
      <tilted>0</tilted></_>
    <_>
      <rects>
        <_>
          0 16 24 8 -1.</_>
        <_>
          0 20 24 4 2.</_></rects>
      <tilted>0</tilted></_>
    <_>
      <rects>
        <_>
          0 21 16 2 -1.</_>
        <_>
          0 21 8 1 2.</_>
        <_>
          8 22 8 1 2.</_></rects>
      <tilted>0</tilted></_>
    <_>
      <rects>
        <_>
          1 8 4 16 -1.</_>
        <_>
          3 8 2 16 2.</_></rects>
      <tilted>0</tilted></_>
    <_>
      <rects>
        <_>
          2 0 8 1 -1.</_>
        <_>
          6 0 4 1 2.</_></rects>
      <tilted>0</tilted></_>
    <_>
      <rects>
        <_>
          2 12 21 1 -1.</_>
        <_>
          9 12 7 1 2.</_></rects>
      <tilted>0</tilted></_>
    <_>
      <rects>
        <_>
          3 0 2 24 -1.</_>
        <_>
          4 0 1 24 2.</_></rects>
      <tilted>0</tilted></_>
    <_>
      <rects>
        <_>
          3 0 4 2 -1.</_>
        <_>
          3 0 2 1 2.</_>
        <_>
          5 1 2 1 2.</_></rects>
      <tilted>0</tilted></_>
    <_>
      <rects>
        <_>
          4 20 4 2 -1.</_>
        <_>
          4 20 2 1 2.</_>
        <_>
          6 21 2 1 2.</_></rects>
      <tilted>0</tilted></_>
    <_>
      <rects>
        <_>
          5 3 4 10 -1.</_>
        <_>
          5 8 4 5 2.</_></rects>
      <tilted>0</tilted></_>
    <_>
      <rects>
        <_>
          5 8 2 8 -1.</_>
        <_>
          5 8 1 4 2.</_>
        <_>
          6 12 1 4 2.</_></rects>
      <tilted>0</tilted></_>
    <_>
      <rects>
        <_>
          6 1 2 2 -1.</_>
        <_>
          6 1 1 1 2.</_>
        <_>
          7 2 1 1 2.</_></rects>
      <tilted>0</tilted></_>
    <_>
      <rects>
        <_>
          6 8 4 2 -1.</_>
        <_>
          6 8 2 1 2.</_>
        <_>
          8 9 2 1 2.</_></rects>
      <tilted>0</tilted></_>
    <_>
      <rects>
        <_>
          6 8 12 9 -1.</_>
        <_>
          6 11 12 3 2.</_></rects>
      <tilted>0</tilted></_>
    <_>
      <rects>
        <_>
          7 20 14 4 -1.</_>
        <_>
          7 20 7 2 2.</_>
        <_>
          14 22 7 2 2.</_></rects>
      <tilted>0</tilted></_>
    <_>
      <rects>
        <_>
          8 9 9 6 -1.</_>
        <_>
          11 9 3 6 2.</_></rects>
      <tilted>0</tilted></_>
    <_>
      <rects>
        <_>
          8 13 8 2 -1.</_>
        <_>
          8 13 4 1 2.</_>
        <_>
          12 14 4 1 2.</_></rects>
      <tilted>0</tilted></_>
    <_>
      <rects>
        <_>
          9 0 14 19 -1.</_>
        <_>
          16 0 7 19 2.</_></rects>
      <tilted>0</tilted></_>
    <_>
      <rects>
        <_>
          10 7 2 6 -1.</_>
        <_>
          10 10 2 3 2.</_></rects>
      <tilted>0</tilted></_>
    <_>
      <rects>
        <_>
          10 12 3 1 -1.</_>
        <_>
          11 12 1 1 2.</_></rects>
      <tilted>0</tilted></_>
    <_>
      <rects>
        <_>
          11 3 1 18 -1.</_>
        <_>
          11 9 1 6 2.</_></rects>
      <tilted>0</tilted></_>
    <_>
      <rects>
        <_>
          11 4 4 2 -1.</_>
        <_>
          11 5 4 1 2.</_></rects>
      <tilted>0</tilted></_>
    <_>
      <rects>
        <_>
          11 8 3 11 -1.</_>
        <_>
          12 8 1 11 2.</_></rects>
      <tilted>0</tilted></_>
    <_>
      <rects>
        <_>
          12 1 12 6 -1.</_>
        <_>
          12 4 12 3 2.</_></rects>
      <tilted>0</tilted></_>
    <_>
      <rects>
        <_>
          12 4 2 15 -1.</_>
        <_>
          12 9 2 5 2.</_></rects>
      <tilted>0</tilted></_>
    <_>
      <rects>
        <_>
          12 13 4 2 -1.</_>
        <_>
          12 13 2 1 2.</_>
        <_>
          14 14 2 1 2.</_></rects>
      <tilted>0</tilted></_>
    <_>
      <rects>
        <_>
          12 20 1 2 -1.</_>
        <_>
          12 21 1 1 2.</_></rects>
      <tilted>0</tilted></_>
    <_>
      <rects>
        <_>
          13 7 1 15 -1.</_>
        <_>
          13 12 1 5 2.</_></rects>
      <tilted>0</tilted></_>
    <_>
      <rects>
        <_>
          14 0 6 1 -1.</_>
        <_>
          17 0 3 1 2.</_></rects>
      <tilted>0</tilted></_>
    <_>
      <rects>
        <_>
          15 0 4 2 -1.</_>
        <_>
          17 0 2 2 2.</_></rects>
      <tilted>0</tilted></_>
    <_>
      <rects>
        <_>
          15 10 2 3 -1.</_>
        <_>
          16 10 1 3 2.</_></rects>
      <tilted>0</tilted></_>
    <_>
      <rects>
        <_>
          16 0 4 1 -1.</_>
        <_>
          18 0 2 1 2.</_></rects>
      <tilted>0</tilted></_>
    <_>
      <rects>
        <_>
          18 0 2 3 -1.</_>
        <_>
          19 0 1 3 2.</_></rects>
      <tilted>0</tilted></_>
    <_>
      <rects>
        <_>
          18 4 4 18 -1.</_>
        <_>
          20 4 2 18 2.</_></rects>
      <tilted>0</tilted></_>
    <_>
      <rects>
        <_>
          19 3 4 21 -1.</_>
        <_>
          21 3 2 21 2.</_></rects>
      <tilted>0</tilted></_>
    <_>
      <rects>
        <_>
          19 6 2 16 -1.</_>
        <_>
          20 6 1 16 2.</_></rects>
      <tilted>0</tilted></_>
    <_>
      <rects>
        <_>
          21 0 3 24 -1.</_>
        <_>
          21 8 3 8 2.</_></rects>
      <tilted>0</tilted></_>
    <_>
      <rects>
        <_>
          21 3 3 3 -1.</_>
        <_>
          22 3 1 3 2.</_></rects>
      <tilted>0</tilted></_>
    <_>
      <rects>
        <_>
          21 7 2 10 -1.</_>
        <_>
          22 7 1 10 2.</_></rects>
      <tilted>0</tilted></_>
    <_>
      <rects>
        <_>
          23 0 1 3 -1.</_>
        <_>
          23 1 1 1 2.</_></rects>
      <tilted>0</tilted></_>
    <_>
      <rects>
        <_>
          23 12 1 10 -1.</_>
        <_>
          23 17 1 5 2.</_></rects>
      <tilted>0</tilted></_></features></cascade>
</opencv_storage>
